Language model created by QuickLM on Mon Jun  2 13:36:33 EDT 2014
Copyright (c) 1996-2010 Carnegie Mellon University and Alexander I. Rudnicky

The model is in standard ARPA format, designed by Doug Paul while he was at MITRE.

The code that was used to produce this language model is available in Open Source.
Please visit http://www.speech.cs.cmu.edu/tools/ for more information

The (fixed) discount mass is 0.5. The backoffs are computed using the ratio method.
This model based on a corpus of 15 sentences and 23 words

\data\
ngram 1=23
ngram 2=37
ngram 3=26

\1-grams:
-0.8808 </s> -0.3010
-0.8808 <s> -0.2309
-2.0569 BACKWARD -0.2398
-2.0569 BROWSER -0.2398
-2.0569 E-MAIL -0.2398
-2.0569 FORWARD -0.2398
-2.0569 HEY -0.2398
-2.0569 JARVIS -0.2398
-2.0569 LAST -0.2933
-2.0569 LOWER -0.2855
-2.0569 MUSIC -0.2972
-2.0569 NEW -0.2972
-2.0569 NEXT -0.2933
-2.0569 OFF -0.2398
-2.0569 ON -0.2398
-1.7559 OPEN -0.2933
-2.0569 PLAYER -0.2398
-2.0569 PLEASE -0.2398
-1.4548 PROJECTOR -0.2855
-2.0569 RAISE -0.2855
-1.7559 SCREEN -0.2398
-2.0569 WHAT -0.2398
-1.7559 WINDOW -0.2398

\2-grams:
-1.4771 <s> BACKWARD 0.0000
-1.4771 <s> FORWARD 0.0000
-1.4771 <s> HEY 0.0000
-1.4771 <s> JARVIS 0.0000
-1.4771 <s> LAST 0.0000
-1.4771 <s> LOWER 0.0000
-1.4771 <s> NEW 0.0000
-1.4771 <s> NEXT 0.0000
-1.1761 <s> OPEN 0.0000
-1.4771 <s> PLEASE 0.0000
-1.1761 <s> PROJECTOR -0.1761
-1.4771 <s> RAISE 0.0000
-1.4771 <s> WHAT 0.0000
-0.3010 BACKWARD </s> -0.3010
-0.3010 BROWSER </s> -0.3010
-0.3010 E-MAIL </s> -0.3010
-0.3010 FORWARD </s> -0.3010
-0.3010 HEY </s> -0.3010
-0.3010 JARVIS </s> -0.3010
-0.3010 LAST WINDOW 0.0000
-0.3010 LOWER PROJECTOR -0.1761
-0.3010 MUSIC PLAYER 0.0000
-0.3010 NEW E-MAIL 0.0000
-0.3010 NEXT WINDOW 0.0000
-0.3010 OFF </s> -0.3010
-0.3010 ON </s> -0.3010
-0.6021 OPEN BROWSER 0.0000
-0.6021 OPEN MUSIC 0.0000
-0.3010 PLAYER </s> -0.3010
-0.3010 PLEASE </s> -0.3010
-0.9031 PROJECTOR OFF 0.0000
-0.9031 PROJECTOR ON 0.0000
-0.6021 PROJECTOR SCREEN 0.0000
-0.3010 RAISE PROJECTOR -0.1761
-0.3010 SCREEN </s> -0.3010
-0.3010 WHAT </s> -0.3010
-0.3010 WINDOW </s> -0.3010

\3-grams:
-0.3010 <s> BACKWARD </s>
-0.3010 <s> FORWARD </s>
-0.3010 <s> HEY </s>
-0.3010 <s> JARVIS </s>
-0.3010 <s> LAST WINDOW
-0.3010 <s> LOWER PROJECTOR
-0.3010 <s> NEW E-MAIL
-0.3010 <s> NEXT WINDOW
-0.6021 <s> OPEN BROWSER
-0.6021 <s> OPEN MUSIC
-0.3010 <s> PLEASE </s>
-0.6021 <s> PROJECTOR OFF
-0.6021 <s> PROJECTOR ON
-0.3010 <s> RAISE PROJECTOR
-0.3010 <s> WHAT </s>
-0.3010 LAST WINDOW </s>
-0.3010 LOWER PROJECTOR SCREEN
-0.3010 MUSIC PLAYER </s>
-0.3010 NEW E-MAIL </s>
-0.3010 NEXT WINDOW </s>
-0.3010 OPEN BROWSER </s>
-0.3010 OPEN MUSIC PLAYER
-0.3010 PROJECTOR OFF </s>
-0.3010 PROJECTOR ON </s>
-0.3010 PROJECTOR SCREEN </s>
-0.3010 RAISE PROJECTOR SCREEN

\end\
