Language model created by QuickLM on Tue Jun 17 18:15:19 EDT 2014
Copyright (c) 1996-2010 Carnegie Mellon University and Alexander I. Rudnicky

The model is in standard ARPA format, designed by Doug Paul while he was at MITRE.

The code that was used to produce this language model is available in Open Source.
Please visit http://www.speech.cs.cmu.edu/tools/ for more information

The (fixed) discount mass is 0.5. The backoffs are computed using the ratio method.
This model based on a corpus of 7 sentences and 9 words

\data\
ngram 1=9
ngram 2=14
ngram 3=7

\1-grams:
-0.7782 </s> -0.3010
-0.7782 <s> -0.2218
-1.6232 FIESTA -0.2218
-1.6232 JARVIS -0.2218
-1.6232 LIGHT -0.2218
-1.6232 LIGHTS -0.2218
-1.6232 MUSIC -0.2218
-1.6232 PARTY -0.2218
-1.6232 PROJECTOR -0.2218

\2-grams:
-1.1461 <s> FIESTA 0.0000
-1.1461 <s> JARVIS 0.0000
-1.1461 <s> LIGHT 0.0000
-1.1461 <s> LIGHTS 0.0000
-1.1461 <s> MUSIC 0.0000
-1.1461 <s> PARTY 0.0000
-1.1461 <s> PROJECTOR 0.0000
-0.3010 FIESTA </s> -0.3010
-0.3010 JARVIS </s> -0.3010
-0.3010 LIGHT </s> -0.3010
-0.3010 LIGHTS </s> -0.3010
-0.3010 MUSIC </s> -0.3010
-0.3010 PARTY </s> -0.3010
-0.3010 PROJECTOR </s> -0.3010

\3-grams:
-0.3010 <s> FIESTA </s>
-0.3010 <s> JARVIS </s>
-0.3010 <s> LIGHT </s>
-0.3010 <s> LIGHTS </s>
-0.3010 <s> MUSIC </s>
-0.3010 <s> PARTY </s>
-0.3010 <s> PROJECTOR </s>

\end\
