Language model created by QuickLM on Sun Jul  6 19:33:31 EDT 2014
Copyright (c) 1996-2010 Carnegie Mellon University and Alexander I. Rudnicky

The model is in standard ARPA format, designed by Doug Paul while he was at MITRE.

The code that was used to produce this language model is available in Open Source.
Please visit http://www.speech.cs.cmu.edu/tools/ for more information

The (fixed) discount mass is 0.5. The backoffs are computed using the ratio method.
This model based on a corpus of 12 sentences and 14 words

\data\
ngram 1=14
ngram 2=24
ngram 3=14

\1-grams:
-0.8016 </s> -0.3010
-0.8016 <s> -0.2196
-1.8808 AC -0.2264
-1.8808 AIR -0.2953
-1.8808 AUDIO -0.2264
-1.8808 CONDITIONING -0.2264
-1.8808 FIESTA -0.2264
-1.8808 JARVIS -0.2264
-1.8808 LIGHT -0.2264
-1.8808 LIGHTS -0.2264
-1.8808 MUSIC -0.2264
-1.8808 PARTY -0.2264
-1.5798 PROJECTOR -0.2126
-1.5798 SCREEN -0.2264

\2-grams:
-1.3802 <s> AC 0.0000
-1.3802 <s> AIR 0.0000
-1.3802 <s> AUDIO 0.0000
-1.3802 <s> FIESTA 0.0000
-1.3802 <s> JARVIS 0.0000
-1.3802 <s> LIGHT 0.0000
-1.3802 <s> LIGHTS 0.0000
-1.3802 <s> MUSIC 0.0000
-1.3802 <s> PARTY 0.0000
-1.0792 <s> PROJECTOR 0.0000
-1.3802 <s> SCREEN 0.0000
-0.3010 AC </s> -0.3010
-0.3010 AIR CONDITIONING 0.0000
-0.3010 AUDIO </s> -0.3010
-0.3010 CONDITIONING </s> -0.3010
-0.3010 FIESTA </s> -0.3010
-0.3010 JARVIS </s> -0.3010
-0.3010 LIGHT </s> -0.3010
-0.3010 LIGHTS </s> -0.3010
-0.3010 MUSIC </s> -0.3010
-0.3010 PARTY </s> -0.3010
-0.6021 PROJECTOR </s> -0.3010
-0.6021 PROJECTOR SCREEN 0.0000
-0.3010 SCREEN </s> -0.3010

\3-grams:
-0.3010 <s> AC </s>
-0.3010 <s> AIR CONDITIONING
-0.3010 <s> AUDIO </s>
-0.3010 <s> FIESTA </s>
-0.3010 <s> JARVIS </s>
-0.3010 <s> LIGHT </s>
-0.3010 <s> LIGHTS </s>
-0.3010 <s> MUSIC </s>
-0.3010 <s> PARTY </s>
-0.6021 <s> PROJECTOR </s>
-0.6021 <s> PROJECTOR SCREEN
-0.3010 <s> SCREEN </s>
-0.3010 AIR CONDITIONING </s>
-0.3010 PROJECTOR SCREEN </s>

\end\
