Language model created by QuickLM on Mon Aug 18 17:18:45 EDT 2014
Copyright (c) 1996-2010 Carnegie Mellon University and Alexander I. Rudnicky

The model is in standard ARPA format, designed by Doug Paul while he was at MITRE.

The code that was used to produce this language model is available in Open Source.
Please visit http://www.speech.cs.cmu.edu/tools/ for more information

The (fixed) discount mass is 0.5. The backoffs are computed using the ratio method.
This model based on a corpus of 14 sentences and 15 words

\data\
ngram 1=15
ngram 2=27
ngram 3=15

\1-grams:
-0.7884 </s> -0.3010
-0.7884 <s> -0.2178
-1.9345 AC -0.2239
-1.9345 AUDIO -0.2239
-1.9345 AUXILLARY -0.2239
-1.9345 FIESTA -0.2239
-1.9345 HOLODECK -0.2239
-1.9345 JARVIS -0.2239
-1.9345 LIGHT -0.2239
-1.9345 LIGHTS -0.2239
-1.9345 MUSIC -0.2239
-1.9345 PLEASE -0.2239
-1.6335 PROJECTOR -0.2116
-1.6335 SCREEN -0.2239
-1.9345 SURFACE -0.2239

\2-grams:
-1.4472 <s> AC 0.0000
-1.4472 <s> AUDIO 0.0000
-1.4472 <s> AUXILLARY 0.0000
-1.4472 <s> FIESTA 0.0000
-1.4472 <s> HOLODECK 0.0000
-1.4472 <s> JARVIS 0.0000
-1.4472 <s> LIGHT 0.0000
-1.4472 <s> LIGHTS 0.0000
-1.4472 <s> MUSIC 0.0000
-1.4472 <s> PLEASE 0.0000
-1.1461 <s> PROJECTOR 0.0000
-1.4472 <s> SCREEN 0.0000
-1.4472 <s> SURFACE 0.0000
-0.3010 AC </s> -0.3010
-0.3010 AUDIO </s> -0.3010
-0.3010 AUXILLARY </s> -0.3010
-0.3010 FIESTA </s> -0.3010
-0.3010 HOLODECK </s> -0.3010
-0.3010 JARVIS </s> -0.3010
-0.3010 LIGHT </s> -0.3010
-0.3010 LIGHTS </s> -0.3010
-0.3010 MUSIC </s> -0.3010
-0.3010 PLEASE </s> -0.3010
-0.6021 PROJECTOR </s> -0.3010
-0.6021 PROJECTOR SCREEN 0.0000
-0.3010 SCREEN </s> -0.3010
-0.3010 SURFACE </s> -0.3010

\3-grams:
-0.3010 <s> AC </s>
-0.3010 <s> AUDIO </s>
-0.3010 <s> AUXILLARY </s>
-0.3010 <s> FIESTA </s>
-0.3010 <s> HOLODECK </s>
-0.3010 <s> JARVIS </s>
-0.3010 <s> LIGHT </s>
-0.3010 <s> LIGHTS </s>
-0.3010 <s> MUSIC </s>
-0.3010 <s> PLEASE </s>
-0.6021 <s> PROJECTOR </s>
-0.6021 <s> PROJECTOR SCREEN
-0.3010 <s> SCREEN </s>
-0.3010 <s> SURFACE </s>
-0.3010 PROJECTOR SCREEN </s>

\end\
